,0,1,2,3,4,5,6,7,8,9,10,11,12,13,14,15,16,17,18,19,20,21,22,23,24,25,26,27,28,29,30,31,32,33,34,35,36,37,38,39,40,41,42,43,44,45,46,47,48,49,50,51,52,53,54,55,56,57,58,59,60,61,62,63,64,65,66,67,68,69,70,71,72,73,74,75,76,77,78,79,80,81,82,83,84,85,86,87,88,89,90,91,92,93,94,95,96,97,98,99,100,101,102,103,104,105,106,107,108,109,110,111,112,113,114,115,116,117,118,119,120,121,122,123,124,125,126,127,128,129,130,131,132,133,134,135,136,137,138,139,140,141,142,143,144,145,146,147,148,149,150,151,152,153,154,155,156,157,158,159,160,161,162,163,164,165,166,167,168,169,170,171,172,173,174,175,176,177,178,179,180,181,182,183,184,185,186,187,188,189,190,191,192,193,194,195,196,197,198,199,200,201,202,203,204,205,206,207,208,209,210,211,212,213,214,215,216,217,218,219,220,221,222,223,224,225,226,227,228,229,230,231,232,233,234,235,236,237,238,239,240,241,242,243,244,245,246,247,248,249,250,251,252,253,254,255,256,257,258,259,260,261,262,263,264,265,266,267,268,269,270,271,272,273,274,275,276,277,278,279,280,281,282,283,284,285,286,287,288,289,290,291,292,293,294,295,296,297,298,299
DRUG_CATEGORY,0.7947127,0.48845622,0.9052378,-0.5796914,0.49204,0.9837969,0.5055607,-0.9497737,0.8862303,0.79877704,0.42379805,-0.60650986,0.6585141,-0.69650555,-0.5707231,-0.5391837,0.6278052,-0.68561596,0.59101367,0.87041837,0.44906157,-0.54460907,-0.5316128,0.5156935,0.6746548,0.87671846,-0.9204511,-0.6738603,0.9069877,0.6957995,0.79329234,-0.55466735,-0.49351132,-0.7796768,0.9217377,-0.59100306,-0.84147197,-0.5007371,-0.9433262,0.7886587,0.49177852,0.51489156,0.5723548,-0.51459396,0.71738404,-0.91374063,-0.578651,0.6236337,0.55028015,0.6661431,0.5561005,-0.5918179,-0.55261,0.707036,0.6357553,-0.41696742,0.5371794,0.5535199,-0.51795405,0.43467984,-0.7507144,-0.6652036,0.4793283,-0.6989093,0.49195316,0.8436987,0.5089355,0.86518675,0.55331296,0.48896968,0.9678461,0.5515798,-0.6050803,0.65403414,-0.5141588,0.42689192,0.5845236,0.5689945,0.744679,-0.7818431,-0.6198492,0.5031385,0.8035962,-0.61331433,0.87343794,-0.60390383,-0.8870532,0.86348295,-0.5897517,0.4854318,-0.7661414,0.82527316,-0.8307247,-0.45972595,-0.61663646,-0.700628,0.5775571,-0.47572982,0.59548515,-0.55260295,-0.47774085,-0.61097,-0.81183714,-0.523786,0.4792176,-0.96208084,0.84487,-0.5542725,0.8384048,-0.63116825,0.49889353,-0.84317285,-0.48736826,0.7322453,-0.6918305,0.4932978,0.8362428,0.7565907,-0.5852535,-0.5233309,0.5250182,0.6170237,0.53899693,1.0169014,-0.60031617,0.940524,-0.6200147,-0.632648,-0.6650205,-0.5592347,-0.48363322,-0.5175726,-0.87424904,0.81007856,-0.57775325,0.5430697,-1.0275576,-0.55692494,-0.68069994,0.50571716,-0.42458072,0.49377763,-0.7679984,0.6342698,-0.7704915,-0.5382272,-0.97363085,-0.51010764,-0.7349743,-0.4783954,0.69932944,0.93082505,-0.5320257,-0.93217415,-0.5503715,1.1042594,0.6958489,0.5313198,-0.9177311,-0.5210478,-0.51387054,-0.5382002,-0.618811,0.46803197,-0.94658554,-0.55432683,0.8200732,0.85163873,-0.56628096,-0.6089879,-0.6310622,-0.5018697,-0.5137115,-0.9793967,0.7452258,0.68269247,0.84488034,-0.5159356,-0.716355,-0.777142,0.6040301,-0.58578455,0.48466882,0.44989687,0.90181154,0.5062635,0.483533,0.5281981,0.6004667,-0.8104791,0.8990592,0.5826109,-0.7982442,0.77357197,0.44694975,-0.5186343,0.8915219,0.8776406,-0.6191454,0.50772804,0.56891245,-0.56499606,-0.94138086,-0.5585688,0.51952654,-0.81040186,-0.6668832,-0.6174072,-0.50537294,-0.7213562,0.8509753,0.89553535,-0.6738781,0.48187166,-0.7853958,0.6921827,-0.5233538,0.91314346,-0.8659297,-0.85678667,-0.56652963,-0.46300653,-0.68846804,-0.47994927,-0.84574944,0.8390743,-0.47830147,-0.7668032,0.5623344,-0.5191393,0.64882153,-0.7071703,0.68365616,0.48729604,0.9058044,0.7104264,0.5996032,-0.9480508,-0.77797496,0.65863997,0.5000736,0.6736987,0.79666096,-0.47511655,0.8375418,0.8896613,0.39888293,0.7967696,-0.76133,-0.70961183,0.48171002,0.53222555,-0.65954244,-0.58368456,0.77375495,-0.6186419,0.73885316,0.49352092,0.554252,0.50188965,-0.4614778,0.64266276,-0.81406176,-0.556526,-0.41697776,-0.89082885,-0.5700366,0.51580775,0.5933995,-0.4975741,-0.57539815,-0.73830223,-0.8146323,-0.9832988,-0.5691046,0.6481296,0.91310436,0.5791118,-0.8088036,-0.5337658,0.61354184,0.78962684,-0.69488364,0.8356653,-0.92116827,-0.70789284,-0.86650366,-0.83726,-0.5412862,0.49074486,0.62743425,0.52757674,0.89300793,-0.5537604,-0.7591859,0.69600207,-0.6892117,0.8622085,0.65101546,0.7724579
PATHWAY_ENZYME,0.49054414,-0.5028273,0.525471,0.4992716,-0.45801604,-0.50169444,0.4867979,-0.5183201,0.46030653,0.5000061,-0.48732167,-0.50468934,-0.48526844,0.50060654,-0.45302078,-0.49327898,-0.47618812,0.50049937,0.49825427,0.49002835,-0.4966728,-0.466706,0.4737585,-0.48705798,-0.471455,-0.47682256,0.50027275,-0.4984376,0.46580175,-0.46203157,0.50002056,-0.46123788,0.4987653,0.49276128,0.5058085,0.51335233,-0.49489355,0.48216027,0.5190351,-0.49705237,-0.46625286,0.481906,-0.47494358,-0.4865504,0.4683026,0.50150186,-0.46104053,0.45236668,0.45553017,0.48285654,0.4779381,0.49701548,0.47441033,0.50059164,0.481188,-0.48889193,0.46972245,-0.4919758,-0.5013855,-0.4877643,0.4746799,-0.5100594,0.49403703,0.47452283,-0.51393735,-0.5180342,-0.4694534,-0.4728322,0.5068252,0.46629018,-0.50676405,0.46290046,-0.4813426,-0.4978916,0.4741727,-0.48068744,-0.5053685,0.50030375,-0.48432878,-0.5040196,0.5112083,-0.49398816,0.5099097,0.48230997,0.4912585,-0.48687837,-0.5142899,-0.5096317,0.4753267,0.45416367,0.4794482,0.49519938,-0.49438772,0.45764366,0.5231776,0.48690045,-0.48503357,0.50937074,0.5040732,-0.44973963,-0.49260306,0.50358814,-0.5001458,0.48716176,0.49442574,-0.4560208,0.47188586,0.4893071,-0.49898925,0.4656808,0.523583,-0.52093977,-0.5036246,-0.46935648,0.49455428,-0.5069751,0.49183112,-0.49471205,0.42547336,0.4748207,0.5126913,0.48836073,0.49039507,0.48135206,-0.4832198,-0.49821714,0.46087185,0.48259974,-0.46145982,-0.50446385,0.50026906,-0.46146005,-0.54851604,-0.47815475,-0.46960667,0.45781228,-0.5217389,0.49839798,0.5066113,-0.44959626,-0.4544731,0.5048245,-0.51071215,-0.48855516,0.5090957,-0.4462835,-0.5002655,-0.49762896,0.49714595,-0.49723274,0.5071683,0.52071196,0.4682195,-0.5194758,-0.42977154,0.52551216,-0.45094812,-0.46533102,-0.52374065,-0.46069813,0.4562151,-0.46843207,0.4828555,0.48950672,0.51983446,-0.46380457,0.49175376,-0.4719696,-0.47803324,-0.49050647,0.47065508,-0.48981223,0.4606829,-0.5119375,0.49373317,0.49665487,-0.48170373,0.4921625,-0.48870835,-0.4703302,-0.43906686,-0.47028702,0.4867495,0.47282073,0.51130617,-0.481053,0.45677832,-0.4748403,-0.49512535,0.5073864,0.4632228,-0.4830613,-0.5024516,-0.492504,-0.4770259,0.48686016,-0.49515525,-0.51552737,-0.4584702,-0.47725827,0.5017493,-0.4831201,0.50443953,-0.48172283,0.4742738,-0.48219422,-0.48873174,-0.51036614,-0.49248588,0.4977654,0.46180674,-0.47080117,-0.51286787,-0.51772475,-0.46538374,0.49157476,0.4747765,0.5010275,0.45791474,-0.48474014,0.4951375,0.46927267,0.47438967,-0.51088834,-0.5222159,0.5075551,-0.4979563,-0.49568307,-0.48046657,0.48811534,-0.49100223,-0.4579598,-0.48390073,0.5073229,0.5186999,-0.49136195,-0.45430088,0.45108798,-0.51254845,0.47597557,0.49447164,0.47672835,0.452577,0.45997992,0.4729956,-0.48155576,0.49860764,0.45748192,-0.50416243,0.5230833,-0.4724074,0.48899692,-0.46406886,-0.49386442,0.4730566,-0.46820322,-0.5080931,-0.45279858,-0.44469744,0.4961713,-0.5106009,-0.4771035,0.47494695,0.48764092,0.48488572,-0.51789814,0.46780387,0.48868454,0.47414672,0.45724136,0.5067806,0.49411005,-0.49388835,0.48761618,-0.486713,0.46764717,-0.49237955,-0.4869691,0.48985675,0.4898708,0.46658048,0.4740762,-0.47504133,-0.47871777,-0.48500845,0.49442887,-0.496448,0.5272255,-0.48742467,-0.48572448,-0.47179404,-0.49545535,-0.48290715,-0.47448638,0.50974274,-0.4812053,-0.48609826,-0.49306303,-0.44765115,0.47648925
DRUG_TARGET,-0.9040693,0.779906,-1.0644733,0.84794366,0.5734401,-0.87305945,-0.73100436,-0.71118885,-0.7440407,0.8480595,-0.66729677,0.8265773,0.952844,-0.8002188,0.7439955,-0.68963426,-0.8823329,0.84942955,-0.7502263,-0.8866629,0.7400445,-0.56388694,-0.7674291,0.8486344,0.8325508,-1.0170653,0.96518004,-0.8405426,0.9083757,0.92694306,-0.94218963,-0.7426272,-0.8157792,0.8044497,-1.0794052,0.96491414,1.0010003,0.65104043,-0.9794573,-0.89939904,-0.7509318,0.7444639,-0.73484474,-0.7471154,-0.90279585,0.9615584,0.72990566,-0.672372,-0.73996484,0.92327726,0.8429739,-0.8132702,0.5597616,0.77897596,0.87057626,-0.5415675,-0.6702999,0.7007677,0.624111,0.35725823,0.8698162,-0.8119277,-0.79394346,-0.855989,0.76166505,0.9609998,-0.67900276,0.97467834,-0.7525717,-0.7970221,0.81973636,-0.8896427,0.75383544,-0.8977628,0.6141616,0.6451594,-0.9223213,-0.7398713,-0.86682665,-0.80163026,-0.9656427,0.517527,-0.8763197,0.93021834,-0.90047693,-0.8137035,1.075081,-1.0965546,0.6932691,-0.7144907,0.663153,-0.52056646,-1.1190841,-0.73053277,-0.86108285,-0.86132956,-0.8159938,0.6539149,-0.86524034,-0.6787953,-0.695425,-0.8863128,-0.98719054,0.6503318,-0.80326575,1.0594788,0.87057346,0.4196652,-1.020655,0.7787172,0.7279657,-0.765993,-0.7929078,0.8825333,-0.83061874,-0.76271003,0.93782735,1.0204445,-0.4721027,-0.76999676,0.9030239,-0.7670738,0.72186875,-1.0723108,0.73979086,-0.7440271,-0.5684022,-0.8468122,-0.21449086,-0.7013587,-0.4234761,0.49012434,-1.0756273,-0.9011227,0.7135181,0.6261051,1.0451082,-0.690356,-0.7247672,0.8012088,-0.6262876,-0.5685616,-0.7690637,-0.8761228,0.7220636,-0.6848674,1.0094161,-0.7090996,1.0812856,-0.79304624,0.9285237,-0.93766433,-0.69671065,1.104922,-0.680613,1.1015537,-0.93261814,0.85579544,0.9081003,0.67252624,-0.763354,-0.6282978,0.7986071,-0.7135665,1.1321353,-0.6958792,-0.88584733,-0.95315135,-0.84040403,0.76242995,0.95643723,0.7552106,-0.6946487,-0.91891146,-0.85868937,0.8374591,0.79217434,-0.76212835,-1.0338323,0.673374,0.9180814,0.7261773,0.67610884,-0.71868837,-1.0168078,-0.78417224,-0.7729792,-0.72473854,0.8377649,-0.8415061,-0.79392976,-0.76322573,-0.72969824,-0.9629262,-0.9006018,-0.49950424,0.9274141,-0.95530874,0.9139528,-0.791414,-0.7284278,-0.8134054,0.94698256,-0.44660366,0.7175123,0.8838714,0.7781799,-0.87404263,0.6510509,0.8340146,-0.9635069,0.90814734,0.89916325,0.74935246,0.8302631,-0.87977123,-0.64487076,0.8765834,-0.9469916,-0.91737795,-0.7280801,-0.5522783,0.69410527,0.8109534,0.96204907,-0.9400682,-0.7210222,0.94955826,-0.81641585,-0.66710997,-0.9593016,0.954052,-0.8367668,-0.51167077,1.0809498,0.8299342,-0.88487613,0.94981635,-0.9503581,0.8572346,-0.74000764,0.82424164,0.96902174,-0.84646595,-0.96792173,1.0377828,-0.81565005,-0.9583641,0.97025204,0.9844242,0.6577925,-0.6469005,0.81134397,0.80682486,-0.8252036,0.8293714,-0.83384764,0.72453046,0.6049662,-0.65114164,0.7286268,-0.89505213,0.85686904,0.71414274,-0.7651574,1.0045911,0.4807854,-0.74342966,-0.8787206,-0.6446226,0.84086645,-0.9074379,-1.0136166,1.1177219,0.3934298,-0.7375625,1.1251285,0.633878,-1.0306712,-0.78389966,0.58998615,-0.95279807,0.9432099,-0.99801356,-0.7706809,-0.8958436,0.95935416,-0.900217,-0.7046389,0.7028511,0.5669602,0.6659874,0.873032,0.7252026,0.92032504,-0.8927113,0.90040547,-1.0276409,-0.9240273,0.9544711
DRUG_ATC_C5,-1.0147083,-1.0322458,1.2378728,-0.59399676,0.37912908,-1.1969478,-0.79943705,-1.2712939,-1.1319101,0.7104192,-0.84545267,0.78414124,-1.16276,-0.86587125,-0.91961604,0.7437645,-0.9975132,0.9755844,-0.75335366,-1.1135503,0.27975965,0.6321792,0.8840294,0.4751693,0.97678065,-1.167734,-0.93267363,0.9751552,-0.9855251,0.971181,1.1507671,-0.67258304,0.7778465,-1.1148405,-1.3434358,-0.92762744,-1.0438119,0.8258004,-1.1453258,-1.0631685,-0.8267231,0.9111109,-0.64593256,-0.71138865,0.9877278,1.1154708,0.06958545,-0.7887235,-0.61723286,0.93769807,-0.85081625,-0.74899316,0.7621162,1.0640292,-0.88051975,-0.8523128,-0.74666554,-0.8528012,0.7502648,0.6983591,1.0806497,-0.9464036,0.6530464,-0.83439493,-0.91611046,1.199618,-0.91649544,0.7572302,0.58977467,-0.6300462,-1.2083136,0.24150069,-0.966842,1.0051064,-0.70402217,0.81637174,-0.8653171,0.93867046,-1.0715792,-1.0030984,1.1142249,-1.0458267,-0.9768654,-0.9537931,-1.1653321,0.8849321,1.2142445,1.1200184,-0.897817,0.96633595,1.0138326,-1.1127205,0.58394104,-0.43560943,1.0140772,-0.87039596,-0.8082857,-0.8818491,-0.9682427,-0.7256116,-0.8365921,-1.0397309,1.0341647,-0.8227602,-0.8085528,1.222236,-0.88896054,0.70884544,1.0875747,1.0174146,-0.9134196,-0.94428945,-0.9155724,-1.1275864,-1.0976284,-1.0077488,-1.03744,1.029374,-0.7250965,-0.59606224,-0.9317691,-0.6214488,-0.8067063,-1.2485046,-0.48494896,1.1648198,-0.7461372,-0.78593665,-1.053708,-0.9007034,0.83407664,-0.91567475,-1.3879888,-1.0927736,-0.71177995,-0.8353533,-1.1681992,0.73096925,-0.8185076,-1.0597169,-0.6750557,-0.5874831,-0.8053166,-0.96924126,-1.0625637,-0.932265,1.3055103,-0.8443641,-1.0677478,-0.7265996,-1.0708078,1.1249547,-0.7980806,1.27618,-0.8512573,-1.3809129,-0.92577803,-1.107503,-1.1078434,-0.79723674,0.9567512,-0.7293653,-0.669605,-0.7033491,1.3224852,-0.8253818,-1.1091123,-1.1143783,-0.93306684,-0.97044224,-0.9518186,-0.9512977,-0.66927457,1.320887,-0.81509954,-1.1027342,-1.0650454,-0.5852385,-1.2922556,-0.954167,-0.90897065,-0.9416684,0.26393297,-0.3235383,1.2862035,-0.8647357,-0.85406417,-0.8779482,-1.0281963,1.0714056,-1.176457,-0.9356952,-1.1656518,0.99752164,-1.0410324,0.68569756,-1.222664,1.1884739,-1.0036639,-0.8818468,-0.9052271,-0.6461779,1.3029104,-0.71741986,0.22099529,1.1806068,-0.7531916,-0.95910275,0.7461262,1.0171431,-1.0642524,1.0980109,1.1140567,-1.0156622,1.0165071,-1.0341406,-0.6611845,1.145438,-1.0297962,-1.072709,0.7411483,-0.6334387,0.7652436,0.9738223,1.093702,-1.1740716,-0.6417723,-1.2138233,-0.8348698,1.0354286,-0.93045443,-0.9499396,-0.94226116,0.7137534,1.2730068,0.9983387,-0.78889686,-1.1664468,-1.0828184,-0.43419465,-0.85074604,0.7755998,-1.08966,-0.4700712,1.2856923,1.287683,-0.84620416,1.0160006,0.9831584,1.034923,-0.8922905,-0.78392667,-0.81930476,0.5321864,1.0735054,-0.7864104,-1.0318209,0.5946914,0.48120338,-0.6264118,0.8846931,-0.9376352,-1.0939521,-0.7042715,0.78472036,1.0894796,-0.8849498,-0.6901611,0.721548,0.9095513,0.7887885,-0.7949119,-1.1347524,-1.3129861,-0.81959975,1.0246613,-1.1555307,0.7455286,-1.0418456,-0.7727059,0.8707301,-0.1363595,-1.089822,-0.9935749,1.1007817,-0.78649014,1.1109612,1.1699755,-0.7433381,0.7420134,0.71614325,-0.8337839,1.1095438,-0.9172759,0.6338732,-0.9507632,0.853165,-1.069028,-1.0912132,-1.1305403
DRUG_ATC_C2,-0.64485127,0.6867492,0.86598176,-0.400721,0.5819717,-0.77383447,-0.5562045,1.0994741,-0.6180133,0.6682321,0.5601744,0.66252226,-0.93891287,-0.6314942,-0.54244304,0.5598553,0.59803534,-0.6960407,-0.6351746,0.68637484,0.5542787,-0.5983794,-0.601934,-0.49210122,-0.754969,0.7998393,-0.6696615,-0.7328971,-0.73365825,0.5821971,-0.8141689,0.5262057,-0.57536715,0.7263255,-0.97095597,-0.50301194,0.91786456,-0.62659526,0.5380363,-0.63654906,-0.57077444,0.68860984,-0.5646619,-0.56933624,-0.777725,0.79994345,0.50040835,-0.607357,-0.49735963,-0.5577754,0.59357005,0.46533883,-0.6273236,-0.6319218,-0.5788587,0.55150753,-0.57804376,-0.5491392,0.63587284,-0.5951053,-0.66232216,0.7247976,0.41422838,-0.62154514,-0.5438967,0.86991745,0.5509863,-0.7456959,-0.54646957,-0.48340616,-0.87532157,0.47744668,0.6191033,0.59695446,0.47356573,0.6278491,0.5824885,0.6862385,-0.8004583,-0.54071796,-0.8139975,-0.7351175,-0.72453845,0.631289,0.7444026,0.70041585,0.8703919,0.74894017,0.62453526,-0.6387301,-0.727376,0.74422675,0.931812,0.5253481,-0.6570198,0.6950721,-0.4814252,-0.66454273,-0.6977433,0.6276542,-0.6052505,0.6345384,-0.6290131,-0.57141274,-0.48727956,0.8702193,-0.7154108,-0.49232233,0.6445921,0.72388005,-0.6856182,-0.7318459,-0.60237145,1.006563,-0.5844771,0.5466706,0.7400202,-0.62258816,-0.5718471,0.5594483,0.730841,0.5810626,0.590406,-0.8474137,-0.5402373,-0.9295494,0.68581307,-0.5881012,0.6920327,-0.6226674,0.61183506,0.6727711,1.1880647,0.69016004,-0.6208058,-0.70301175,0.78041035,0.5647674,0.64178336,0.5496909,0.5329146,0.5106895,0.75604475,0.6064816,-0.8162576,0.6717704,0.9148556,0.57937384,-0.7737206,0.64264464,-0.76038915,0.81149167,-0.62029344,-0.84202784,0.512409,-1.0100324,0.47720733,-0.76691324,-0.7721775,-0.6070092,-0.6516025,0.52525747,-0.59074265,-0.61305463,-1.0422009,-0.6467978,0.78921205,-0.8210117,-0.71079695,-0.75541234,0.72204316,0.5186388,0.48967305,1.009107,0.54475874,-0.8024755,-0.76980954,0.5399598,0.8549702,-0.7647742,-0.6467554,-0.59040815,-0.49648124,0.34669784,0.946649,-0.57635957,-0.5870082,0.5912419,0.7118919,0.6917859,-0.8132314,-0.72753966,0.7409287,-0.6236408,-0.808228,-0.49448714,0.9586033,-0.7331286,0.6959792,-0.6934616,-0.6728666,-0.6115353,0.9985664,0.5467474,0.4715362,0.94531244,0.4017566,0.57468015,-0.56568885,0.6475756,0.75120574,-0.6448038,-0.86087155,0.61524796,-0.7273883,0.6581751,-0.58044285,-0.73122156,-0.80511856,-0.698728,0.5138418,0.4898541,0.65967286,0.6364187,-0.7163939,-0.7920666,0.57667935,0.87243706,0.64804983,-0.6009434,-0.72255445,-0.746929,0.6070084,0.54685885,-0.913866,-0.7942258,-0.5629524,0.7048395,0.78184307,-0.56700534,0.56734467,-0.6944765,-0.8029613,-0.5537665,-1.1253514,0.9576928,-0.6266676,0.82716876,0.8487962,0.74901146,-0.58898604,-0.52194375,0.4900004,0.6718236,0.790757,0.55606884,0.7912249,-0.5774801,-0.5568572,-0.45772865,-0.5830664,0.6408893,-0.8254212,-0.6313416,-0.5276532,-0.81743413,-0.64848214,-0.50892836,-0.62337273,0.53931373,0.61061394,0.7642133,0.8002936,-1.0158324,-0.5860916,0.7179671,-0.9068828,0.60192263,0.78179103,-0.59326136,-0.56570846,0.63846385,-0.8162819,-0.7765495,-0.6818617,0.65115637,-0.648979,0.72034216,-0.59041595,0.56860924,0.64617866,0.60570675,0.94744337,-0.63466597,0.5530202,-0.73581934,0.7706175,-0.8073311,0.70159644,0.6947758
DRUG_PATHWAY,-0.6592259,-0.25563473,-0.58443576,-0.6880155,0.46398318,-0.65699285,0.97372204,-0.7117565,0.71585906,-0.65621614,0.5506246,-0.5985793,-0.81937534,-0.8223154,-0.70208263,-0.8787,-0.9294335,-0.7552673,0.52124375,0.79063344,-0.82366085,0.30095878,0.6876695,-0.630281,-0.61079204,0.7058761,-0.5070467,0.607631,0.619858,0.64168805,0.908141,-0.7713243,0.9000114,-0.63507414,-0.80863,0.8572816,-0.74787647,0.6857306,-0.737446,0.778074,-0.96012455,-0.5403019,-0.47900307,0.62167627,-0.8215652,-0.7114511,0.5469728,0.78268814,0.76487505,0.80724275,-0.79055065,0.63573515,-0.65343326,-0.85239404,0.7908771,-0.8657253,0.9434427,0.79490787,-0.55237955,0.45139366,-0.6954404,0.7929356,0.6009338,-0.6437876,-0.6415636,0.7951563,0.3108633,0.7550035,0.69473153,0.68584913,-0.78945565,0.72145844,0.8257432,-0.7568331,-0.51021516,0.8743618,0.758774,0.94913095,-0.7226208,-0.60849386,0.59876746,0.30238,0.560521,-0.7441205,-0.7287431,-0.8332719,-0.56661534,0.7178049,-0.4985067,-0.67971903,-0.7590059,-0.7401073,-0.76204914,-0.7969767,0.6765199,0.71935517,-0.7304453,-0.7095045,0.7486219,0.52858865,-0.766322,0.6131943,-0.69304335,-0.6836836,-0.88545233,0.7022046,-0.52046824,-0.7919928,0.77702856,-0.7821807,-0.643679,0.7117902,0.83914024,0.83499753,0.7558999,0.7828158,0.7882551,-0.6543371,0.35248634,-0.8286175,0.5320581,-0.8732015,0.65240145,-0.85551274,-0.8104736,0.8305151,-0.7546036,0.38489375,-0.71073097,-0.41412905,-0.72036517,0.5347289,0.88564163,-0.5395943,0.27478895,0.66553473,-0.70174646,-0.9493895,0.68436795,0.41480404,-0.6843196,-1.0361673,0.7127144,0.8421464,0.6503305,0.7533759,-0.78395504,1.0249792,-0.7126946,0.96592194,0.7005402,-0.84626377,0.6956441,-0.91974103,-0.53237563,0.80501133,-0.7796058,-0.7619413,-0.8615531,-0.7297789,-0.9169432,-0.39254084,-0.5947635,0.3235303,0.8212609,-0.6090805,0.4375749,-0.37829867,0.81854856,0.83447963,0.915971,-0.8231086,-0.75619316,0.6613672,-0.8872243,-0.65775484,0.5306917,-0.5708435,-0.8495761,0.85194457,-0.7869093,-0.53646153,0.66787386,0.51907426,0.7939949,-0.37601095,-0.1801428,-0.7352086,0.8177694,0.59478027,0.64417386,-0.6598419,-0.75181645,0.8771306,-0.787633,-0.8526028,-0.7322472,0.85694057,-0.5609684,0.5900144,0.5690289,-0.77072996,0.84605414,-0.7905307,-0.117993414,0.8970978,-0.6129629,-0.7770525,0.62475383,-0.75859314,0.8943966,-0.68097323,0.7289721,0.7281571,-0.9210188,-0.5921985,-0.74168956,-0.87016505,-0.8978975,-0.71075594,0.94494635,-0.46634695,-0.49094626,0.7642114,-0.5391338,-0.666486,0.42907536,-0.82623166,0.5813029,-0.4983036,-0.744669,-0.86570704,-0.88518554,-1.030084,0.6746665,-0.70862776,0.52497,0.85153425,0.68252534,-0.82169473,0.57992774,0.6333558,0.8344108,0.70163596,-0.74221796,0.7567356,0.77262455,0.64055854,-0.78665376,-0.5730413,-0.69157803,0.59969544,-0.7523186,-0.9897673,-0.83961904,0.21720627,-0.81427944,0.7293854,-0.19745423,-0.6106326,0.67787695,-0.83295876,-0.8408838,0.7108516,0.9547983,0.91112214,0.5594194,-0.06956387,-0.6131972,0.42857546,-0.20178866,-0.6924022,0.57096595,0.62476546,0.47695068,-0.5784241,0.70854723,0.73435533,-0.8729593,-0.81142545,-0.66787213,0.32038683,-0.7578987,0.7241823,-0.6436787,-0.767824,-0.7795244,-0.4687792,0.0070312354,-0.781579,-0.9686512,-0.9690299,0.70552343,0.4971417,0.88186115,0.6273325,-0.5740974,0.94225526,0.81605357,0.61699563
DRUG_ATC_C3,0.7232673,-0.6975672,-0.938076,-0.2607852,0.3858993,-0.86480975,-0.61559564,-1.0136985,-0.75795215,0.71286803,0.6048377,-0.637516,-0.91147727,-0.71429664,0.5477557,0.5417733,0.6828987,0.7440647,-0.656432,-0.7584908,0.5909811,0.612761,-0.6312675,0.49056497,-0.7037818,0.89156175,0.6685882,0.7282312,-0.73119247,0.7648565,-0.8639775,0.593406,0.5354935,-0.80529207,1.0567087,0.43603826,0.91125715,0.60770506,0.65591085,0.77095544,0.46058086,-0.5814793,-0.6038325,-0.5333311,-0.76107585,0.83852065,-0.5514204,0.67027116,0.60553193,0.6275032,-0.64346623,-0.61562884,-0.635091,0.7497513,0.65323824,-0.6837313,0.5962066,-0.6063547,0.6468276,0.63269603,0.8270738,-0.7659392,0.5038054,0.66341376,-0.5873284,0.94226396,-0.70066947,0.8062367,-0.52819747,-0.54015636,0.8935509,-0.60803246,-0.67734295,0.6624803,0.43947616,-0.5679271,0.55491215,0.7382717,-0.879669,0.609192,0.79618776,0.7112375,0.75773054,-0.71677065,0.83082014,0.68897426,0.94017124,0.7541533,-0.7111048,0.73999184,0.7765263,-0.74322283,-0.9541852,-0.584386,0.72374237,0.7474957,0.6235517,-0.7170834,0.71360755,0.64849424,-0.6836541,-0.70006275,0.684443,0.51520115,0.5277461,-0.9147457,-0.7271714,0.49915618,0.70490915,-0.7059931,-0.7316297,-0.7874868,0.57674253,-1.0125028,0.65604216,0.58646506,-0.8004479,-0.7019156,0.52438265,-0.6103875,-0.7750367,-0.67201465,-0.6877204,0.9477573,0.59418875,0.91687125,-0.7258041,-0.62758356,-0.81230026,0.6422026,0.58373696,-0.75671434,1.1863502,0.737316,0.65234095,-0.7356762,0.7919078,-0.5574078,-0.7267259,-0.73679304,-0.6728214,0.50669694,-0.78505164,0.55342996,0.84790015,-0.7808589,1.0155728,0.59434813,-0.79872596,0.65946484,-0.7786694,0.7946161,0.61914474,-0.882207,0.61596715,1.1016843,0.6742971,0.7452094,0.8573063,-0.6278358,-0.58311397,0.54230595,-0.6734085,-0.5916402,-1.010276,-0.630159,0.8268906,-0.83810663,-0.73145974,-0.75642353,0.6808935,0.612607,-0.6317526,1.0557764,-0.6423263,-0.83483857,0.7805145,0.5469604,-0.96122044,-0.82151335,-0.71638775,0.571693,-0.59349644,-0.39990076,1.0053796,0.49602476,0.52251726,-0.711883,0.73025584,-0.7544774,0.87827015,0.6368538,-0.8452078,0.75925225,0.8260267,-0.5304086,0.9040502,-0.80707496,-0.7611969,-0.769914,0.6656499,0.53261656,0.97035396,0.627088,0.5520539,0.97399855,0.460496,0.7403136,-0.56917286,0.68834364,-0.85825753,-0.74230814,-0.78985333,-0.694133,0.721804,0.6462314,-0.57650596,0.80509,0.8590097,-0.7892428,0.499661,-0.48270342,0.68039185,0.7089588,-0.74158156,0.84347457,0.6193717,-0.9328651,0.6072701,0.71108955,-0.7834637,-0.7236201,0.6678188,-0.6296164,-0.9867397,0.82325304,-0.5581134,-0.7932739,-0.8247064,0.6087538,-0.6489583,0.80052793,-0.82592225,0.45833835,-1.0795989,-1.0175889,-0.69358236,0.86477405,-0.76722634,0.8406278,-0.6304286,-0.5921351,0.5131252,0.6463823,-0.8240095,0.6265774,0.81788325,-0.60844624,-0.6259353,-0.5358961,-0.6093313,-0.7378942,0.7704555,0.6127902,-0.54230005,0.82763547,0.6516769,0.6244176,0.71823084,0.65341145,-0.69992226,-0.7783344,-0.85462195,-0.9703369,-0.6891443,0.71764135,-0.9770047,0.59287703,-0.91639125,-0.59459525,-0.6163045,0.6461687,-0.8758401,0.7982239,-0.74519104,0.66743016,-0.68983835,-0.84543806,0.614983,0.6354305,-0.6642654,0.57391566,-0.9587831,0.6303102,-0.6323327,-0.7802904,0.7980752,-0.88264346,0.7105461,-0.80892885
TYPE,0.79351467,-0.5203738,0.04582539,0.640179,0.638413,-0.5629062,-0.6204739,-0.77480596,-0.69144624,-0.4582159,-0.6789555,0.70003486,-0.66157216,-0.6987449,0.63942033,0.49192247,0.6462468,0.50019157,0.59780055,-0.6513596,-0.63585126,-0.55163914,-0.504284,-0.2713113,0.69410706,-0.15283276,-0.53742236,0.7186135,-0.8426934,-1.143043,-0.5659611,-0.55621904,-0.583164,-0.433157,-0.53259176,-0.8082047,0.043476056,0.548549,-0.6207603,-0.5344001,-0.5705062,0.4517492,-0.26631358,-0.5481026,-0.72332287,0.8660601,0.46352336,0.57510465,-0.5387921,-0.37663493,0.58825475,0.5637104,-0.522478,0.67709965,-0.794531,0.57759523,0.63062763,0.6560561,0.589815,-0.70176876,-0.59220904,0.542936,-0.6105794,-0.55024934,-0.6104978,0.75409,-0.55835485,-0.5196042,0.5485994,0.6153038,-0.9246753,-0.5152327,-0.77221787,0.55115,-0.5745132,0.732507,0.11099636,0.5730313,0.6467148,-0.7243785,-0.0030047696,-0.5478282,0.8514816,0.7015501,-0.5414705,0.52904695,-0.31822294,0.33378887,-0.5809616,0.65242153,0.83179516,-0.82961226,-0.9745282,0.5032522,0.91346127,-0.3145923,-0.505238,-0.73125774,-0.72221106,0.34334743,0.47359997,-0.7030761,-0.22592214,0.55263764,-0.5969086,-0.11446981,-0.6932345,0.6408791,0.7046694,0.53845495,0.5602252,-0.6835374,0.42880505,0.7706502,-0.6938523,-0.45164883,-0.41548902,0.008177476,0.56822914,0.55596864,-0.64120835,0.64874536,-0.58487993,0.02846972,0.45166573,0.2957189,0.56980485,0.71723455,-0.54336715,0.08394193,-0.77721727,-0.56342924,-0.5112113,0.57925653,0.17357583,-0.66740584,-0.08665915,0.6630763,0.084297374,-0.6424319,-0.51685977,-0.6928661,0.34129202,0.77281916,-0.29800418,-0.44109735,0.47749183,0.54478806,-0.3501844,-0.29271668,-0.46176717,0.57762784,-0.5676546,0.025533326,0.53586566,0.54121315,-0.10437913,0.2802411,0.2928119,-0.6194659,-0.7121157,0.48675805,-0.3273128,-0.7115148,-0.20932613,0.4441981,0.6221529,-0.33912522,0.44240794,-0.3375651,0.77109015,-0.44773272,0.63432086,-0.32687238,0.68961614,0.54892457,-0.74212563,-0.40643382,1.0198965,0.01985864,-0.6140786,-0.29503268,-0.5109462,-0.6585397,0.18115462,0.39555785,0.529785,-0.2964213,-0.03297469,0.78088075,-0.9223188,0.5365469,-0.4063648,-0.1675595,0.9742752,-0.7239422,0.50236803,0.4780984,-0.16535144,0.2733435,-0.5520421,0.15940814,-1.0656167,0.57945114,0.58907664,-0.69007844,-0.74111515,-0.46565038,0.5663929,0.49077448,-0.058725495,0.802326,0.6096443,-0.60512596,0.99850196,0.89854085,-0.43701956,0.69971865,0.15145138,-0.82049423,0.7540877,-0.6324977,-0.8100814,-0.45199752,0.89536273,0.54779154,0.57247025,0.37655276,-0.2849064,-0.5586833,0.082822315,0.05517677,-0.25960588,-0.6861134,0.43661916,-0.6319767,-0.22483794,0.46391907,-0.5584978,-0.3269804,-0.6431382,-0.38659298,-0.4916789,0.56811994,-0.6904601,-0.40459934,0.6689757,-0.8357754,0.5738497,0.6720362,0.66477245,0.5451082,-0.6346335,0.5783966,0.48413742,-0.40280578,0.7963162,0.5708203,-0.44081303,-0.61144704,0.6966359,0.043399345,0.26675925,-0.6217104,0.6910515,0.18255651,0.08075135,-0.57205296,0.01680129,-0.62000763,-0.1172501,-0.41277274,0.0406995,0.15488645,0.46605262,-0.5583501,-0.17512149,0.10865227,0.18411602,0.3600311,-0.14800385,-0.3345455,0.14448084,0.6048465,0.798954,-0.31599885,0.7088965,-0.590034,0.56743664,-0.5726493,-0.6102221,0.66687995,-0.90463614,0.62091416,0.6472775,0.5490545,-0.091095574,0.21402302,-0.56336904,-0.65226805
PATHWAY_CATEGORY,0.19115095,0.24041,0.45118898,-0.52334785,0.35028625,-0.48185623,0.58633685,-0.48393503,-0.46931148,-0.55624163,-0.5955671,-0.35904956,0.48555502,0.28496477,0.6178958,-0.44621238,0.37418047,0.34535167,0.42256612,0.26198596,0.5921382,0.7208743,-0.5000594,-0.34934995,-0.6643532,-0.5019639,-0.4694318,0.5608021,0.43943495,0.5523714,0.53353995,-0.5764647,0.6065209,0.6290773,-0.32821184,-0.3322235,-0.43629757,0.5836484,0.3893429,0.4074232,0.4634314,0.4769266,0.6121918,-0.05156359,-0.667852,0.30782226,-0.30788872,0.56096864,0.4705642,0.42456612,0.50139326,-0.47929236,0.4885414,-0.6685601,-0.48781446,0.4661644,0.526899,0.33075964,0.20177317,0.57843465,0.45513254,-0.5206825,-0.60646445,0.55167896,-0.65789443,-0.50943506,0.38003623,-0.64308727,-0.31051555,-0.48566726,-0.4978505,-0.7099662,0.581317,-0.48995686,0.51698464,-0.44987357,-0.46709043,0.4414894,-0.7073005,0.38918737,-0.5568942,0.4076607,0.33340386,0.6226193,0.50233114,-0.37429225,0.35975006,-0.3384207,-0.41359428,0.38869092,0.6772704,0.64425117,0.4921761,0.4879089,-0.38819924,-0.5080267,0.42954987,-0.27760687,0.4366118,-0.6268802,0.451689,-0.2944366,0.27576044,-0.47207725,-0.45441455,0.6375437,0.46048063,-0.45526454,-0.57882917,-0.57564527,-0.55013764,-0.41058582,0.32970542,0.65189874,0.5451762,0.5268027,-0.3474981,-0.35032484,-0.5438773,-0.51265377,0.35647258,-0.5708905,0.5717862,-0.54184324,-0.64757717,0.5114774,-0.66019005,-0.42914045,0.5032031,0.6306987,0.44905084,-0.50732434,-0.4044101,0.22415893,-0.47240594,-0.525795,-0.43606082,-0.60896945,-0.18213993,-0.56972706,-0.6701883,0.67290777,0.35330915,0.46840218,-0.34884423,-0.67316806,-0.47544634,0.6460306,-0.59042317,-0.5763659,0.39600584,-0.36118844,-0.5699635,0.58519506,-0.6977438,-0.3141238,-0.5225738,0.59548277,-0.49806827,-0.55135185,-0.6699138,0.54281735,0.75242746,0.2595323,0.41417238,0.44063565,0.3914466,0.6106243,0.5046625,-0.6074185,0.6888796,0.6009818,-0.36599833,0.3716156,0.46849546,0.464686,0.5433954,0.5009358,0.5432245,0.7564089,0.6863394,-0.484614,0.51302516,-0.5068826,-0.27635938,0.39620566,0.6002931,-0.43308926,-0.44520378,0.47490293,-0.52670926,-0.6061032,0.5684346,0.56121725,0.33749935,-0.53338075,0.5505447,0.32887924,0.6454212,-0.55088407,0.34712437,-0.4401398,-0.40388483,-0.47893864,0.47330976,0.40305987,0.65527976,0.41393575,0.53688174,-0.50757676,0.58099943,0.51674855,0.407139,0.23624492,-0.55004984,0.46293363,0.43687832,-0.5113231,0.5753437,-0.55066746,-0.58153224,0.52844787,-0.5479067,-0.1533721,-0.42004585,0.38499728,-0.313337,-0.5203549,0.3561809,0.3225979,-0.53302205,0.4984195,-0.5458999,-0.4413752,-0.37830585,-0.5796327,0.55555004,-0.39893785,0.38219234,-0.560149,-0.6597119,-0.34895787,-0.52573645,0.54736125,-0.55055386,0.4723598,0.50481343,-0.5340205,0.41957548,0.22511582,0.57397795,-0.42789024,-0.5414552,0.47780964,0.4525956,0.5427625,-0.52751595,0.52441764,0.6067528,-0.43029892,-0.34612247,-0.6175194,0.49648282,0.49731696,0.33690244,0.50718266,0.46169183,0.50803334,0.52682,0.5998333,-0.38781315,0.39629602,0.5534268,0.5974515,-0.3309018,0.50990146,0.37082046,0.58298784,-0.4110858,-0.4700098,-0.3599428,-0.44446027,-0.24982777,-0.63442224,0.53751916,-0.31920266,0.4178868,-0.20122285,-0.4467109,-0.41205293,0.5220203,0.52315545,-0.627691,0.5935043,0.4111552,0.42426398,-0.45834455,-0.6162313,-0.65798044,-0.30091983
DRUG_ATC_C4,-0.78532445,-0.8900413,-1.0450618,-0.46637735,0.47495592,-0.98997784,0.61992717,1.0875757,-0.8695879,-0.8032155,0.6584747,-0.70088834,-0.9508883,0.7759975,0.6109171,0.64437723,0.66814864,-0.5990953,0.75575256,-0.8749872,-0.614875,0.6999219,-0.6618177,0.44126102,-0.79757446,-0.94068223,0.8015935,0.8053076,0.8477942,0.7347726,-0.98238593,0.6727017,0.6555163,0.8751282,-1.136737,0.7359573,0.93960965,0.6131381,-0.87595004,0.7829448,-0.693449,0.8007271,-0.6238734,-0.64341253,-0.89456165,-0.9608853,-0.71992266,-0.6509558,-0.65026635,-0.71559906,0.7568663,-0.674769,-0.73927647,0.84152925,0.75971276,-0.60796356,-0.7280602,0.60209966,-0.47453994,0.60555357,-0.8508612,0.7970846,-0.38739207,-0.68468875,-0.7286693,1.0379506,-0.80390555,-0.8526198,0.71510214,-0.5860518,-1.0105402,0.58718044,0.7587858,0.80011076,-0.695032,-0.62828374,0.693529,-0.7789593,0.9483173,0.17851381,0.9172937,-0.88873464,0.8576601,0.73948646,-0.930773,0.7203753,0.97021854,0.7939338,0.6656066,-0.6533013,0.8779414,-0.87785494,0.9332071,-0.5818176,-0.8117796,-0.8370899,0.68306905,0.7609434,0.7807661,-0.72791374,-0.66170114,0.76280344,-0.63674825,-0.6065173,-0.6828833,1.0246965,0.85206103,-0.4554085,-0.8875218,-0.77503073,-0.796246,0.90044457,0.62382257,-1.0264089,0.7826938,-0.8399586,-0.9150767,-0.84330195,-0.69127786,-0.54874486,-0.8090573,-0.73527545,0.64180624,-1.080092,-0.741647,0.9891532,-0.7950018,-0.7401833,0.8310648,-0.75605327,-0.6746755,-0.84525895,-1.218708,-0.72110647,-0.7562786,-0.8564076,0.9690526,0.40229756,-0.82359993,-0.8471626,-0.71987516,0.49094492,-0.8676372,0.6471552,-0.89719594,-0.8213379,1.0870018,-0.70141983,-0.882999,-0.74107677,-0.8745598,-0.8675073,-0.7266356,1.0083352,-0.70671,1.2360831,0.74034363,-0.8947131,0.9443617,-0.75686955,0.607794,-0.6774914,-0.52538705,-0.7560271,-1.0728613,-0.74010813,0.9333425,0.9359169,0.7752119,-0.81294745,-0.8849778,-0.77549505,-0.6659408,-1.1590171,-0.6773002,0.884442,0.88114357,-0.6200743,-1.0352148,0.90146965,0.7590042,0.6778958,0.5674445,-0.4516962,1.1154405,-0.5382416,0.5428971,-0.8420289,-0.853706,-0.8639201,-1.0005045,-0.81584764,0.9423647,-0.8684615,-0.91627145,0.51243037,-1.0213256,0.91774607,-0.8723006,-0.861756,-0.7757617,-0.70363516,1.0676062,0.7566682,0.6463695,0.98916453,0.47777754,0.7775798,-0.6421554,0.669134,-0.928233,-0.84778756,0.8446024,-0.78632504,-0.8244634,-0.84075886,-0.6305417,-0.96281546,-0.8966546,-0.86699724,-0.6059936,0.34536573,-0.6059535,-0.73177296,0.9163436,0.9440472,0.71647763,1.0326663,-0.7055711,-0.6799027,0.81487685,0.6970611,0.722241,0.6318354,-1.060855,0.86034733,-0.71662146,0.502122,0.9011803,0.6301036,0.60818714,0.86339426,0.8788407,-0.48068708,-1.1178868,1.1322434,-0.68184984,0.92820096,-0.85522336,-0.9223437,0.7206695,-0.47253162,0.52431947,-0.6587781,0.9120326,0.646841,-0.91218144,0.6334739,0.6735883,-0.550492,0.74148315,0.68669623,-0.9147445,0.65743273,0.628691,-0.94810086,0.7098744,0.7525484,0.7339591,0.7435619,-0.7463588,-0.87524664,-0.92797583,-1.0936224,0.65914464,0.83903354,-1.0146675,0.7301424,-0.9345351,0.73447156,-0.7406085,0.5411003,0.95087194,-0.89346296,0.84103817,0.72932893,-0.8686896,-0.91854334,0.6400381,-0.67959,0.7121698,-0.73237956,1.0361758,-0.7924728,0.7320131,-0.8936447,-0.78970325,-0.98312247,0.7967439,-0.7552131
DRUG_TRANSPORTER,-0.54733455,-0.7111662,-0.8048038,-0.27218416,0.9548049,0.7409274,0.75046986,0.53235716,-0.9256939,0.56455964,0.60402125,-0.36056587,0.9477132,-0.82937425,-0.24149306,-0.8336757,0.6155492,-0.44573414,-0.6614795,0.46781343,0.9836968,-0.7899722,-0.56743956,0.9453415,-0.6188566,0.55761355,0.99756205,0.7912207,0.87690866,1.0309587,-0.72471434,-0.6903373,-0.8104254,0.52719796,0.83461666,-0.50996166,0.9666459,-0.70900816,0.6547486,0.86176145,0.46823943,-0.5099474,-0.5519273,-0.839598,-0.63200635,0.7921397,-0.62125224,-0.62013155,-0.7037416,1.082846,0.67639875,0.65050423,0.43797803,1.0139462,-0.41603696,-0.77948344,-0.85869026,0.86366576,0.68380904,-0.51230377,0.79758096,0.5185624,0.66952544,-0.5104322,0.89478946,-0.81807053,0.39338094,-0.38021582,0.41488072,-0.5806058,0.8472636,-0.9361346,-0.5261578,-0.86510104,-0.6446895,-0.69017684,0.6649971,-0.8999421,-0.5612931,0.7983111,0.7817033,-0.5804117,0.49248242,-0.5987521,0.31599745,0.72586834,0.95000726,-0.80171335,-0.77087086,-0.5506336,-0.42976922,-1.3148308,0.72134143,-1.0477337,-0.8581818,-0.5579996,-0.6463752,-0.84693617,-0.4235291,0.77333987,0.72414863,0.5464378,0.8425026,-0.5959365,-0.57922417,0.7838281,0.9272523,-0.8347615,0.5896439,0.75360084,0.36554196,-1.1455942,-0.8274827,-0.9104361,-0.28327438,-0.9880443,0.48655978,-0.41574666,0.6138997,0.57148725,0.40641207,-0.7256057,0.31640634,1.1659448,-0.6756581,-0.77568173,-0.86247134,0.54963094,0.699143,-0.8860046,-0.334672,-0.7214537,-0.75255334,-0.9911247,-0.7267984,0.46094447,-0.6052622,-0.8266743,0.7314585,0.5155046,-0.7551735,-1.022563,0.46323162,0.6989535,-0.3025313,0.6360531,-0.99411386,-0.5290744,-0.64991313,-0.81294984,-0.7044345,-0.70694464,-0.7465847,0.47472104,0.5819574,-0.960641,0.58170533,-0.8067937,0.57770544,0.6057656,-0.93859684,0.31216663,0.9067524,-0.8875502,0.35573706,-0.7645544,-0.85468954,-0.78825164,-0.36388025,0.6668895,-0.58506763,0.7454317,-0.89015007,-0.791989,-0.4850732,-0.67568785,-0.7152529,-0.9227537,1.3912295,-0.8294798,-0.7756926,0.5645575,0.27995497,0.534711,-0.90916204,0.6785603,-0.74887955,0.7111703,-0.81576157,-0.74821013,0.6408619,-0.4093637,0.9485511,-0.8667176,0.64067334,0.6643649,-0.7787083,0.5781104,-0.7447615,0.72988045,-0.35924986,-0.69648534,-0.62611663,-0.33798873,0.7737554,0.96640295,-0.42349923,-0.6137392,0.5736867,-0.5317432,-0.22920312,-0.43403932,0.83365756,0.76287514,-0.6773988,0.22534157,0.7217146,-1.0187882,-0.88221204,-0.6887416,-0.5941759,-0.85554284,0.8284178,-0.6724218,0.8399808,-0.9337578,-0.67612636,0.56648046,-0.7770327,0.63851017,0.79155123,-0.6076556,-1.0692391,-0.73851895,-0.8906615,-0.7633048,-0.82384247,-0.77309054,-0.5203324,-0.69303244,-0.87115604,-0.25542718,-0.834237,-0.18895744,-0.9113362,0.6446143,-0.858522,0.60891306,0.40542272,0.7186615,0.8471327,0.58629584,-0.41891995,-0.783953,-0.6530689,0.89050317,-0.69808125,0.56482595,-0.64198756,0.42337957,1.0149937,-1.1002591,-0.8280466,0.67141145,0.7216289,0.9062101,-0.37045777,-0.5952886,0.5932157,0.3570738,0.7102041,-0.98734033,0.70111185,-0.79443264,-0.35860544,-0.6219255,-0.8299364,-0.4600699,0.6969799,0.036254413,-0.8391665,0.38557556,0.99524236,0.84075993,0.59191525,-0.804655,-0.57951415,0.53263104,0.40093106,0.7950605,0.5741853,-0.69539267,0.721049,-0.4930001,-0.7329127,-0.8201534,0.8138917,0.6041498,0.55772036,-0.9084469
DRUG_ENZYME,0.95286787,0.66808146,0.604081,-0.71210843,0.6417239,0.6532442,0.54173106,-0.36930108,-0.7828766,0.85111463,-0.57538617,0.6151676,0.1909694,-0.08979713,0.6368764,-0.80354947,0.62923795,0.2092288,-0.71041995,-0.48212978,0.73269075,-0.8138113,-0.6490865,0.7484865,-0.58250415,-0.75258225,0.94774806,-0.8243026,0.7009748,0.9393982,-0.93473446,0.4146506,-0.7423899,0.4875267,0.8290723,0.7025608,0.49154407,-0.15707795,0.73556644,0.48970315,0.33780175,-0.59366804,-0.54884946,0.50762224,0.61407226,-0.34640816,0.8209069,0.38326624,-0.55351806,0.5651836,0.7840585,-0.798846,0.59369975,0.84183013,0.6901618,0.70767045,0.42121065,0.6067823,0.7984073,0.4651576,0.7059351,0.2731038,0.3525059,-0.1450012,0.80674005,-0.8723577,0.6534351,0.7958447,-0.3782597,-0.71506286,0.1710124,-0.9491313,0.73672336,-0.9909618,0.56960756,-0.6878451,0.7267003,-0.77803904,-0.024261218,-0.83286625,-0.80506235,0.6916411,-0.0084834825,0.5254305,0.74234486,-0.77438486,-0.7168441,-0.82515156,0.53964394,0.73526186,0.63752776,-0.9137246,-0.94099724,-0.6336041,-0.8295591,0.70083123,-0.37596133,-0.3663487,0.77056944,0.73223996,0.7566335,-1.0390277,-0.84873503,0.55349004,-0.77448386,0.87444633,0.81821656,-0.44442433,0.7609831,0.828784,0.6898111,-0.83532554,-0.8236286,-0.5849504,1.1273755,0.47788736,-0.3537144,-0.80707157,-0.59104776,0.540187,0.70550615,-0.74585164,0.800774,-1.1312685,-0.8040766,-0.79994875,-0.45631686,-0.66119784,-0.52871406,-0.80461234,-0.48809424,0.47248948,0.5791825,-0.64720577,0.66105735,-0.7965952,-0.4358372,-0.8558488,-0.67616534,0.7004885,0.7678975,0.39520058,-0.7492384,-0.8112963,-0.82399863,0.62307924,-0.66375816,-0.92389864,0.7092035,-0.85690874,0.6791504,-0.87070066,0.6679519,-0.7492107,-0.72297037,0.81295776,0.63193727,0.6253437,0.7852039,0.4176183,0.4337288,-0.741666,-0.6877439,-0.54948145,0.89466995,-0.48771268,-0.6434476,-0.72934574,0.57448816,-0.12984145,0.84288716,0.67676497,0.62395513,0.90523887,-0.28340155,0.2391784,-0.42491314,-0.4128321,0.97984123,-0.7411801,0.6210089,-0.73213553,-0.63763833,0.62927663,0.695926,-0.86029416,-0.8305588,0.7143805,-0.8655043,-0.68823606,-0.6283659,-0.72846824,0.9128996,-0.5693632,-0.63410556,0.31253734,-0.7754705,-0.78968275,-0.76530695,0.7193008,-0.54567796,0.496102,0.5980419,0.66656595,-0.72837996,-0.4961358,-0.7476537,-0.50329614,-0.3075669,0.6877055,-0.9517552,-0.610535,-0.7981659,0.53331697,0.41585833,-0.90395904,-0.75323987,0.8772816,-0.82176745,-0.8554893,0.59844595,-0.7357927,0.7756058,-0.61227036,0.9297768,-0.92361313,0.24831292,-1.051412,0.7539879,0.7456253,-0.7659281,0.7206408,-0.65657663,-0.76510274,-0.778754,-0.24753723,-0.731446,-0.7525324,-0.5615331,-0.8093371,0.67398185,0.7888106,0.8543011,0.2747446,-0.84314245,-0.37720358,-0.7251646,0.45493037,-0.724432,0.9890535,0.7926432,0.6001312,0.6998443,0.56813294,-0.40733883,0.81018376,-0.9477454,0.9148439,0.8230966,0.74148905,-0.46761274,-0.71973705,0.7359085,0.22747956,-0.5621729,0.86499566,-0.7688394,-0.68958974,-0.66343445,-0.7403919,0.74132633,-0.35443747,-0.51809955,0.4385501,-0.7756572,-0.16829982,0.6126181,0.73727965,-0.8047074,-0.6439085,0.72046274,-0.634837,-0.5427595,-0.5611528,0.22985756,-0.6026725,0.81269807,0.807817,-0.8039637,0.828982,-0.5710877,0.77196914,-0.6027828,0.6681645,-0.630785,-0.7089228,-0.6424677,-0.77020466,-0.5060296,0.7762818
DRUG_ATC_C1,-0.52292067,-0.62710625,0.6788331,-0.27588084,-0.4745815,0.57699245,0.5207746,-1.1884248,-0.36036816,0.6720476,0.54125476,-0.7894306,-1.0125425,-0.47180408,0.39850742,-0.48773512,0.55204546,0.6964343,0.54023397,0.47260624,-0.54638726,0.520749,0.54005533,0.43562445,-0.67937475,-0.69747686,-0.47585645,0.5785812,-0.5599888,0.8303831,0.87171936,0.44362757,-0.47707817,-0.64861214,-0.9399539,0.40543655,-0.9522469,0.5821754,-0.41442227,-0.48896345,0.53827035,0.628242,0.51136816,0.4368975,0.6165243,-0.6697635,0.42501688,0.44230926,0.4857169,0.64084095,0.67801774,0.49736753,-0.5699563,-0.80416834,-0.5732335,-0.55033016,0.53232086,-0.5203677,-0.46726218,-0.599413,-0.6452834,-0.6802677,-0.3441519,0.6537487,-0.46958727,0.9482663,0.5052445,0.699591,-0.45060602,0.40734425,0.8238057,0.3367393,-0.60957813,0.54788476,0.510049,0.5868017,-0.36053285,0.5951558,0.7991705,-0.38390297,0.77115136,-0.64931923,-0.65023965,0.61441445,0.5999677,0.6202107,-0.821814,0.7370443,-0.62144804,0.5905977,-0.5833883,-0.71347046,-0.9651541,0.5046574,-0.7781491,-0.704386,-0.63189876,0.6796499,0.68679315,-0.56365824,-0.48017895,0.60523635,0.57047075,-0.4750485,-0.5068811,0.7447091,0.5211247,0.37818208,0.48138642,-0.57642275,0.7037783,-0.8082761,0.39187288,-0.898534,-0.6063852,-0.5613383,0.5233504,-0.48728356,0.39408565,0.4292886,0.6926857,-0.53626966,0.5929423,0.90662235,0.41217878,-0.8196408,0.4791528,-0.51672226,0.7717844,-0.69315356,0.6827248,-0.6668792,1.3511922,0.6226492,-0.5348881,-0.61796415,-0.7476499,-0.5145299,0.4406823,-0.6931842,-0.5169452,-0.48447436,-0.8800547,-0.57155293,0.7861962,0.67506146,0.92309177,-0.6069001,0.70505387,-0.631453,0.872371,0.6799643,-0.4760576,-0.7507332,0.39575815,1.0193036,-0.43000123,0.787679,0.61874014,0.6025229,0.5247117,-0.48569748,-0.41880393,-0.5343722,-1.1257476,0.54813486,-0.61846405,-0.78420097,-0.4434381,0.61345595,-0.671811,-0.44069153,-0.49449396,-0.98340696,-0.4768515,-0.8497401,0.6031514,-0.44487256,0.6614278,-0.7685846,0.69269824,0.46573755,-0.49612933,-0.37845483,0.8418329,0.46371752,0.4384756,-0.53005517,-0.6949466,0.5834618,-0.8536506,-0.6476216,0.35954404,0.6837219,0.82722485,0.3593469,0.98188233,0.5211145,-0.6774874,-0.6264766,-0.5390704,-0.46598315,-0.777919,-0.52529913,0.4438324,-0.8478439,0.24561587,0.6114547,0.51507014,0.48521465,-0.8295254,0.7250877,0.7860526,0.5597894,-0.6321004,-0.6522685,-0.4473446,0.44491014,0.90636736,0.7053465,0.522396,-0.3904137,-0.5385666,-0.5496435,-0.5890714,0.78544253,-0.52616686,-0.8587779,-0.5541143,-0.5772334,0.6703506,0.74071795,-0.35889336,-0.44509345,-0.9138787,0.7885148,-0.3339437,0.79221624,-0.731048,-0.47508395,0.5209752,-0.59392554,0.70039403,-0.5112212,-1.1123446,1.0280902,-0.5708805,0.7958807,0.84999895,-0.7613966,0.5977262,0.3737972,0.36486813,-0.6640663,0.6515354,0.5267935,0.71848005,0.46117756,0.49213377,0.45276883,0.53898114,0.5478901,-0.7711334,-0.48371136,0.47220045,-0.81742185,0.61297697,-0.48029163,-0.72794175,0.5061189,0.5665669,0.49335083,-0.62514573,0.9838881,0.5709544,0.6239332,0.576883,0.5691134,-0.7094453,-0.41365167,0.5470134,0.5801283,0.7030845,-0.65784127,-0.72836804,0.67058873,0.78456473,-0.68644476,-0.4955627,-0.5068824,0.51938885,-0.52740765,0.94340885,-0.57823986,0.5336229,-0.5354799,-0.58905107,0.6467908,-0.6060463,0.4551286
DRUG_CARRIER,-0.42572406,-0.7578315,-0.38250884,-0.89597255,1.0525501,-0.6746425,-0.6547732,-0.97237986,0.38480237,0.6798323,-0.95214486,1.0152549,1.0181793,0.69093317,0.83454716,0.64076495,0.63547343,-0.5201409,-1.1237776,-0.7519007,1.170986,-0.90512514,0.56728286,-0.43747547,-0.6250394,-1.1624075,-0.56335616,0.84494174,1.0201124,0.6734183,0.53447056,0.6617115,-0.9826893,0.6657236,-0.8841831,-0.33548775,-0.791012,0.9395428,-0.27883077,-0.49370852,-0.49883932,-0.47030085,-0.8527624,0.7883312,0.7375706,-0.5885515,0.66207606,-0.7876139,-0.80130756,1.2260374,0.7159365,0.72877824,-0.68660414,0.9273881,-0.7781421,-0.6558201,-0.51386523,-0.4408816,-0.7357756,-0.7298748,-0.38581735,-0.5612909,0.7555574,0.6740706,-0.3317224,-0.653313,0.6258051,0.98026294,0.5447124,0.26800856,0.9823097,0.17735647,-1.0404941,0.8786004,-0.8588302,-0.7161584,-0.607644,-0.8068742,0.7112984,1.0139838,-1.0122072,-0.7352253,0.9126404,1.0195948,0.8047336,0.5860938,0.62165177,-0.99303305,-0.536216,-0.70430344,1.0496539,0.6540508,0.64996296,-1.2587752,0.4825023,0.90100694,0.65165,1.0586118,0.825103,0.7423203,-1.0314466,-0.6449431,0.7943524,-0.8206443,-1.0463843,-0.54674786,-0.47746179,0.7929642,0.7306756,0.82890326,-0.5089192,0.85749114,-1.0216832,0.7008946,0.20464264,0.49262226,-0.5924584,-0.64689076,0.6529874,-0.90377426,-0.5696773,0.35627404,-0.5913251,0.33401686,0.88105905,0.85881853,0.6983245,-0.66040903,-0.59150755,-0.69450766,0.7652441,-0.6396714,0.9223031,-1.0666853,0.6299183,-0.9677941,0.6379384,-0.97533417,0.58558285,0.40415668,-1.0572615,-1.1280272,0.7823778,-0.9443879,0.60188234,0.64922136,-0.24129477,-1.11539,1.0487616,0.24373919,0.35267502,0.6778223,0.46171778,0.97290856,-0.80778587,-0.8281659,-0.8356955,0.8581312,-0.3816614,-0.7193995,0.58134735,-0.14913131,0.8225702,-1.0084003,0.55351037,-0.9037816,-0.9235619,-0.6668741,-1.2654341,-0.59495145,-0.5918145,0.72461253,0.7601766,-0.74156654,-0.5994687,0.41577673,-0.57719886,0.640749,-1.3384007,-0.8892462,-0.3378168,0.9094293,-0.6659025,-0.52238315,-1.3488042,-0.9527863,0.41441295,-0.973451,0.5416972,-0.78387135,0.574612,0.66094494,0.54560655,0.70222217,-0.73396605,0.38704723,-0.8567543,0.27135655,-0.91947806,-0.8393189,-1.0415665,-0.95869946,0.68551344,0.52377653,0.96984035,1.0941176,0.77006227,0.42992964,0.37927824,0.734938,0.6704692,0.9683153,0.66370046,-0.646056,0.8111464,0.5697181,0.7945348,0.5170968,0.7838106,-0.9202424,-0.46269196,0.32965282,-0.5934069,0.92093724,0.23387274,-0.7288918,-0.63640916,-1.0398685,0.9069897,-0.7050538,-0.6076016,-0.15489443,0.5724734,0.90892684,-0.56565213,-0.7014779,-1.0859952,0.15016773,0.6772855,0.6511577,0.3492393,0.92284316,-0.6220078,-0.7907814,0.48716927,0.56728584,-0.9845942,0.50988156,0.4877181,-0.53287256,-0.28526044,-0.7621861,-0.74250466,-0.43085068,0.768642,-0.6466884,-1.0801433,-0.39110482,-0.47039855,0.6621153,0.8137587,-1.032855,0.844798,-0.7979313,0.73474777,0.77664614,-0.40947714,0.66523683,0.8432889,0.78441185,0.96985424,-0.27929738,-0.5608683,-0.8972995,-0.4160756,0.53932637,-0.60298353,0.8988058,1.0063082,-0.8997396,-0.66698146,-0.70869666,-0.52451956,-0.83749485,-0.4559855,-1.0489116,-0.78868324,0.6188909,-0.78960055,-0.39607593,0.7946853,-0.62088144,0.86901385,-0.46343368,-0.8413196,-0.673217,-0.7795867,0.20155,-0.5148746,-1.0616896
